digraph Tree {
node [shape=box, style="filled, rounded", color="black", fontname=helvetica] ;
edge [fontname=helvetica] ;
0 [label="Credit_History <= 0.5\ngini = 0.43\nsamples = 614\nvalue = [192, 422]\nclass = o", fillcolor="#93caf1"] ;
1 [label="LoanAmount_log <= 6.3\ngini = 0.14\nsamples = 89\nvalue = [82, 7]\nclass = L", fillcolor="#e78c4a"] ;
0 -> 1 [labeldistance=2.5, labelangle=45, headlabel="True"] ;
2 [label="LoanAmount_log <= 4.86\ngini = 0.13\nsamples = 88\nvalue = [82, 6]\nclass = L", fillcolor="#e78a47"] ;
1 -> 2 ;
3 [label="Loan_Amount_Term <= 240.0\ngini = 0.04\nsamples = 46\nvalue = [45, 1]\nclass = L", fillcolor="#e6843d"] ;
2 -> 3 ;
4 [label="Education <= 0.5\ngini = 0.28\nsamples = 6\nvalue = [5, 1]\nclass = L", fillcolor="#ea9a61"] ;
3 -> 4 ;
5 [label="LoanAmount_log <= 4.6\ngini = 0.5\nsamples = 2\nvalue = [1, 1]\nclass = L", fillcolor="#ffffff"] ;
4 -> 5 ;
6 [label="gini = 0.0\nsamples = 1\nvalue = [0, 1]\nclass = o", fillcolor="#399de5"] ;
5 -> 6 ;
7 [label="gini = 0.0\nsamples = 1\nvalue = [1, 0]\nclass = L", fillcolor="#e58139"] ;
5 -> 7 ;
8 [label="gini = 0.0\nsamples = 4\nvalue = [4, 0]\nclass = L", fillcolor="#e58139"] ;
4 -> 8 ;
9 [label="gini = 0.0\nsamples = 40\nvalue = [40, 0]\nclass = L", fillcolor="#e58139"] ;
3 -> 9 ;
10 [label="LoanAmount_log <= 4.88\ngini = 0.21\nsamples = 42\nvalue = [37, 5]\nclass = L", fillcolor="#e99254"] ;
2 -> 10 ;
11 [label="gini = 0.0\nsamples = 1\nvalue = [0, 1]\nclass = o", fillcolor="#399de5"] ;
10 -> 11 ;
12 [label="LoanAmount_log <= 5.15\ngini = 0.18\nsamples = 41\nvalue = [37, 4]\nclass = L", fillcolor="#e88f4e"] ;
10 -> 12 ;
13 [label="LoanAmount_log <= 5.07\ngini = 0.27\nsamples = 25\nvalue = [21, 4]\nclass = L", fillcolor="#ea995f"] ;
12 -> 13 ;
14 [label="Gender <= 0.5\ngini = 0.1\nsamples = 19\nvalue = [18, 1]\nclass = L", fillcolor="#e68844"] ;
13 -> 14 ;
15 [label="LoanAmount_log <= 4.92\ngini = 0.32\nsamples = 5\nvalue = [4, 1]\nclass = L", fillcolor="#eca06a"] ;
14 -> 15 ;
16 [label="gini = 0.0\nsamples = 2\nvalue = [2, 0]\nclass = L", fillcolor="#e58139"] ;
15 -> 16 ;
17 [label="LoanAmount_log <= 4.94\ngini = 0.44\nsamples = 3\nvalue = [2, 1]\nclass = L", fillcolor="#f2c09c"] ;
15 -> 17 ;
18 [label="gini = 0.0\nsamples = 1\nvalue = [0, 1]\nclass = o", fillcolor="#399de5"] ;
17 -> 18 ;
19 [label="gini = 0.0\nsamples = 2\nvalue = [2, 0]\nclass = L", fillcolor="#e58139"] ;
17 -> 19 ;
20 [label="gini = 0.0\nsamples = 14\nvalue = [14, 0]\nclass = L", fillcolor="#e58139"] ;
14 -> 20 ;
21 [label="Loan_Amount_Term <= 270.0\ngini = 0.5\nsamples = 6\nvalue = [3, 3]\nclass = L", fillcolor="#ffffff"] ;
13 -> 21 ;
22 [label="gini = 0.0\nsamples = 2\nvalue = [2, 0]\nclass = L", fillcolor="#e58139"] ;
21 -> 22 ;
23 [label="LoanAmount_log <= 5.09\ngini = 0.38\nsamples = 4\nvalue = [1, 3]\nclass = o", fillcolor="#7bbeee"] ;
21 -> 23 ;
24 [label="gini = 0.0\nsamples = 2\nvalue = [0, 2]\nclass = o", fillcolor="#399de5"] ;
23 -> 24 ;
25 [label="LoanAmount_log <= 5.11\ngini = 0.5\nsamples = 2\nvalue = [1, 1]\nclass = L", fillcolor="#ffffff"] ;
23 -> 25 ;
26 [label="gini = 0.0\nsamples = 1\nvalue = [1, 0]\nclass = L", fillcolor="#e58139"] ;
25 -> 26 ;
27 [label="gini = 0.0\nsamples = 1\nvalue = [0, 1]\nclass = o", fillcolor="#399de5"] ;
25 -> 27 ;
28 [label="gini = 0.0\nsamples = 16\nvalue = [16, 0]\nclass = L", fillcolor="#e58139"] ;
12 -> 28 ;
29 [label="gini = 0.0\nsamples = 1\nvalue = [0, 1]\nclass = o", fillcolor="#399de5"] ;
1 -> 29 ;
30 [label="LoanAmount_log <= 4.98\ngini = 0.33\nsamples = 525\nvalue = [110, 415]\nclass = o", fillcolor="#6db7ec"] ;
0 -> 30 [labeldistance=2.5, labelangle=-45, headlabel="False"] ;
31 [label="LoanAmount_log <= 4.47\ngini = 0.28\nsamples = 327\nvalue = [56, 271]\nclass = o", fillcolor="#62b1ea"] ;
30 -> 31 ;
32 [label="LoanAmount_log <= 4.1\ngini = 0.39\nsamples = 83\nvalue = [22, 61]\nclass = o", fillcolor="#80c0ee"] ;
31 -> 32 ;
33 [label="LoanAmount_log <= 2.52\ngini = 0.2\nsamples = 35\nvalue = [4, 31]\nclass = o", fillcolor="#53aae8"] ;
32 -> 33 ;
34 [label="gini = 0.0\nsamples = 1\nvalue = [1, 0]\nclass = L", fillcolor="#e58139"] ;
33 -> 34 ;
35 [label="Loan_Amount_Term <= 330.0\ngini = 0.16\nsamples = 34\nvalue = [3, 31]\nclass = o", fillcolor="#4ca6e8"] ;
33 -> 35 ;
36 [label="gini = 0.0\nsamples = 9\nvalue = [0, 9]\nclass = o", fillcolor="#399de5"] ;
35 -> 36 ;
37 [label="LoanAmount_log <= 3.84\ngini = 0.21\nsamples = 25\nvalue = [3, 22]\nclass = o", fillcolor="#54aae9"] ;
35 -> 37 ;
38 [label="LoanAmount_log <= 3.82\ngini = 0.32\nsamples = 10\nvalue = [2, 8]\nclass = o", fillcolor="#6ab6ec"] ;
37 -> 38 ;
39 [label="Education <= 0.5\ngini = 0.2\nsamples = 9\nvalue = [1, 8]\nclass = o", fillcolor="#52a9e8"] ;
38 -> 39 ;
40 [label="gini = 0.0\nsamples = 7\nvalue = [0, 7]\nclass = o", fillcolor="#399de5"] ;
39 -> 40 ;
41 [label="Married <= 0.5\ngini = 0.5\nsamples = 2\nvalue = [1, 1]\nclass = L", fillcolor="#ffffff"] ;
39 -> 41 ;
42 [label="gini = 0.0\nsamples = 1\nvalue = [1, 0]\nclass = L", fillcolor="#e58139"] ;
41 -> 42 ;
43 [label="gini = 0.0\nsamples = 1\nvalue = [0, 1]\nclass = o", fillcolor="#399de5"] ;
41 -> 43 ;
44 [label="gini = 0.0\nsamples = 1\nvalue = [1, 0]\nclass = L", fillcolor="#e58139"] ;
38 -> 44 ;
45 [label="Married <= 0.5\ngini = 0.12\nsamples = 15\nvalue = [1, 14]\nclass = o", fillcolor="#47a4e7"] ;
37 -> 45 ;
46 [label="gini = 0.0\nsamples = 12\nvalue = [0, 12]\nclass = o", fillcolor="#399de5"] ;
45 -> 46 ;
47 [label="LoanAmount_log <= 3.96\ngini = 0.44\nsamples = 3\nvalue = [1, 2]\nclass = o", fillcolor="#9ccef2"] ;
45 -> 47 ;
48 [label="gini = 0.0\nsamples = 1\nvalue = [0, 1]\nclass = o", fillcolor="#399de5"] ;
47 -> 48 ;
49 [label="LoanAmount_log <= 4.03\ngini = 0.5\nsamples = 2\nvalue = [1, 1]\nclass = L", fillcolor="#ffffff"] ;
47 -> 49 ;
50 [label="gini = 0.0\nsamples = 1\nvalue = [1, 0]\nclass = L", fillcolor="#e58139"] ;
49 -> 50 ;
51 [label="gini = 0.0\nsamples = 1\nvalue = [0, 1]\nclass = o", fillcolor="#399de5"] ;
49 -> 51 ;
52 [label="LoanAmount_log <= 4.18\ngini = 0.47\nsamples = 48\nvalue = [18, 30]\nclass = o", fillcolor="#b0d8f5"] ;
32 -> 52 ;
53 [label="gini = 0.0\nsamples = 3\nvalue = [3, 0]\nclass = L", fillcolor="#e58139"] ;
52 -> 53 ;
54 [label="Education <= 0.5\ngini = 0.44\nsamples = 45\nvalue = [15, 30]\nclass = o", fillcolor="#9ccef2"] ;
52 -> 54 ;
55 [label="Loan_Amount_Term <= 420.0\ngini = 0.4\nsamples = 36\nvalue = [10, 26]\nclass = o", fillcolor="#85c3ef"] ;
54 -> 55 ;
56 [label="LoanAmount_log <= 4.23\ngini = 0.38\nsamples = 35\nvalue = [9, 26]\nclass = o", fillcolor="#7ebfee"] ;
55 -> 56 ;
57 [label="Gender <= 0.5\ngini = 0.5\nsamples = 4\nvalue = [2, 2]\nclass = L", fillcolor="#ffffff"] ;
56 -> 57 ;
58 [label="gini = 0.0\nsamples = 1\nvalue = [0, 1]\nclass = o", fillcolor="#399de5"] ;
57 -> 58 ;
59 [label="LoanAmount_log <= 4.2\ngini = 0.44\nsamples = 3\nvalue = [2, 1]\nclass = L", fillcolor="#f2c09c"] ;
57 -> 59 ;
60 [label="gini = 0.0\nsamples = 1\nvalue = [0, 1]\nclass = o", fillcolor="#399de5"] ;
59 -> 60 ;
61 [label="gini = 0.0\nsamples = 2\nvalue = [2, 0]\nclass = L", fillcolor="#e58139"] ;
59 -> 61 ;
62 [label="LoanAmount_log <= 4.3\ngini = 0.35\nsamples = 31\nvalue = [7, 24]\nclass = o", fillcolor="#73baed"] ;
56 -> 62 ;
63 [label="Loan_Amount_Term <= 261.0\ngini = 0.18\nsamples = 10\nvalue = [1, 9]\nclass = o", fillcolor="#4fa8e8"] ;
62 -> 63 ;
64 [label="LoanAmount_log <= 4.27\ngini = 0.5\nsamples = 2\nvalue = [1, 1]\nclass = L", fillcolor="#ffffff"] ;
63 -> 64 ;
65 [label="gini = 0.0\nsamples = 1\nvalue = [1, 0]\nclass = L", fillcolor="#e58139"] ;
64 -> 65 ;
66 [label="gini = 0.0\nsamples = 1\nvalue = [0, 1]\nclass = o", fillcolor="#399de5"] ;
64 -> 66 ;
67 [label="gini = 0.0\nsamples = 8\nvalue = [0, 8]\nclass = o", fillcolor="#399de5"] ;
63 -> 67 ;
68 [label="Married <= 0.5\ngini = 0.41\nsamples = 21\nvalue = [6, 15]\nclass = o", fillcolor="#88c4ef"] ;
62 -> 68 ;
69 [label="LoanAmount_log <= 4.42\ngini = 0.49\nsamples = 12\nvalue = [5, 7]\nclass = o", fillcolor="#c6e3f8"] ;
68 -> 69 ;
70 [label="Loan_Amount_Term <= 330.0\ngini = 0.49\nsamples = 9\nvalue = [5, 4]\nclass = L", fillcolor="#fae6d7"] ;
69 -> 70 ;
71 [label="gini = 0.0\nsamples = 1\nvalue = [0, 1]\nclass = o", fillcolor="#399de5"] ;
70 -> 71 ;
72 [label="LoanAmount_log <= 4.39\ngini = 0.47\nsamples = 8\nvalue = [5, 3]\nclass = L", fillcolor="#f5cdb0"] ;
70 -> 72 ;
73 [label="Gender <= 0.5\ngini = 0.5\nsamples = 6\nvalue = [3, 3]\nclass = L", fillcolor="#ffffff"] ;
72 -> 73 ;
74 [label="gini = 0.0\nsamples = 1\nvalue = [0, 1]\nclass = o", fillcolor="#399de5"] ;
73 -> 74 ;
75 [label="LoanAmount_log <= 4.36\ngini = 0.48\nsamples = 5\nvalue = [3, 2]\nclass = L", fillcolor="#f6d5bd"] ;
73 -> 75 ;
76 [label="LoanAmount_log <= 4.32\ngini = 0.5\nsamples = 4\nvalue = [2, 2]\nclass = L", fillcolor="#ffffff"] ;
75 -> 76 ;
77 [label="LoanAmount_log <= 4.31\ngini = 0.44\nsamples = 3\nvalue = [2, 1]\nclass = L", fillcolor="#f2c09c"] ;
76 -> 77 ;
78 [label="gini = 0.5\nsamples = 2\nvalue = [1, 1]\nclass = L", fillcolor="#ffffff"] ;
77 -> 78 ;
79 [label="gini = 0.0\nsamples = 1\nvalue = [1, 0]\nclass = L", fillcolor="#e58139"] ;
77 -> 79 ;
80 [label="gini = 0.0\nsamples = 1\nvalue = [0, 1]\nclass = o", fillcolor="#399de5"] ;
76 -> 80 ;
81 [label="gini = 0.0\nsamples = 1\nvalue = [1, 0]\nclass = L", fillcolor="#e58139"] ;
75 -> 81 ;
82 [label="gini = 0.0\nsamples = 2\nvalue = [2, 0]\nclass = L", fillcolor="#e58139"] ;
72 -> 82 ;
83 [label="gini = 0.0\nsamples = 3\nvalue = [0, 3]\nclass = o", fillcolor="#399de5"] ;
69 -> 83 ;
84 [label="Gender <= 0.5\ngini = 0.2\nsamples = 9\nvalue = [1, 8]\nclass = o", fillcolor="#52a9e8"] ;
68 -> 84 ;
85 [label="gini = 0.0\nsamples = 1\nvalue = [1, 0]\nclass = L", fillcolor="#e58139"] ;
84 -> 85 ;
86 [label="gini = 0.0\nsamples = 8\nvalue = [0, 8]\nclass = o", fillcolor="#399de5"] ;
84 -> 86 ;
87 [label="gini = 0.0\nsamples = 1\nvalue = [1, 0]\nclass = L", fillcolor="#e58139"] ;
55 -> 87 ;
88 [label="LoanAmount_log <= 4.34\ngini = 0.49\nsamples = 9\nvalue = [5, 4]\nclass = L", fillcolor="#fae6d7"] ;
54 -> 88 ;
89 [label="Gender <= 0.5\ngini = 0.38\nsamples = 4\nvalue = [1, 3]\nclass = o", fillcolor="#7bbeee"] ;
88 -> 89 ;
90 [label="gini = 0.0\nsamples = 2\nvalue = [0, 2]\nclass = o", fillcolor="#399de5"] ;
89 -> 90 ;
91 [label="LoanAmount_log <= 4.25\ngini = 0.5\nsamples = 2\nvalue = [1, 1]\nclass = L", fillcolor="#ffffff"] ;
89 -> 91 ;
92 [label="gini = 0.0\nsamples = 1\nvalue = [1, 0]\nclass = L", fillcolor="#e58139"] ;
91 -> 92 ;
93 [label="gini = 0.0\nsamples = 1\nvalue = [0, 1]\nclass = o", fillcolor="#399de5"] ;
91 -> 93 ;
94 [label="Loan_Amount_Term <= 270.0\ngini = 0.32\nsamples = 5\nvalue = [4, 1]\nclass = L", fillcolor="#eca06a"] ;
88 -> 94 ;
95 [label="gini = 0.0\nsamples = 2\nvalue = [2, 0]\nclass = L", fillcolor="#e58139"] ;
94 -> 95 ;
96 [label="LoanAmount_log <= 4.43\ngini = 0.44\nsamples = 3\nvalue = [2, 1]\nclass = L", fillcolor="#f2c09c"] ;
94 -> 96 ;
97 [label="Gender <= 0.5\ngini = 0.5\nsamples = 2\nvalue = [1, 1]\nclass = L", fillcolor="#ffffff"] ;
96 -> 97 ;
98 [label="gini = 0.0\nsamples = 1\nvalue = [1, 0]\nclass = L", fillcolor="#e58139"] ;
97 -> 98 ;
99 [label="gini = 0.0\nsamples = 1\nvalue = [0, 1]\nclass = o", fillcolor="#399de5"] ;
97 -> 99 ;
100 [label="gini = 0.0\nsamples = 1\nvalue = [1, 0]\nclass = L", fillcolor="#e58139"] ;
96 -> 100 ;
101 [label="Married <= 0.5\ngini = 0.24\nsamples = 244\nvalue = [34, 210]\nclass = o", fillcolor="#59ade9"] ;
31 -> 101 ;
102 [label="Loan_Amount_Term <= 420.0\ngini = 0.31\nsamples = 84\nvalue = [16, 68]\nclass = o", fillcolor="#68b4eb"] ;
101 -> 102 ;
103 [label="LoanAmount_log <= 4.67\ngini = 0.29\nsamples = 81\nvalue = [14, 67]\nclass = o", fillcolor="#62b1ea"] ;
102 -> 103 ;
104 [label="LoanAmount_log <= 4.65\ngini = 0.4\nsamples = 22\nvalue = [6, 16]\nclass = o", fillcolor="#83c2ef"] ;
103 -> 104 ;
105 [label="LoanAmount_log <= 4.62\ngini = 0.36\nsamples = 21\nvalue = [5, 16]\nclass = o", fillcolor="#77bced"] ;
104 -> 105 ;
106 [label="LoanAmount_log <= 4.55\ngini = 0.4\nsamples = 18\nvalue = [5, 13]\nclass = o", fillcolor="#85c3ef"] ;
105 -> 106 ;
107 [label="LoanAmount_log <= 4.52\ngini = 0.22\nsamples = 8\nvalue = [1, 7]\nclass = o", fillcolor="#55abe9"] ;
106 -> 107 ;
108 [label="LoanAmount_log <= 4.49\ngini = 0.38\nsamples = 4\nvalue = [1, 3]\nclass = o", fillcolor="#7bbeee"] ;
107 -> 108 ;
109 [label="gini = 0.0\nsamples = 2\nvalue = [0, 2]\nclass = o", fillcolor="#399de5"] ;
108 -> 109 ;
110 [label="Gender <= 0.5\ngini = 0.5\nsamples = 2\nvalue = [1, 1]\nclass = L", fillcolor="#ffffff"] ;
108 -> 110 ;
111 [label="gini = 0.0\nsamples = 1\nvalue = [0, 1]\nclass = o", fillcolor="#399de5"] ;
110 -> 111 ;
112 [label="gini = 0.0\nsamples = 1\nvalue = [1, 0]\nclass = L", fillcolor="#e58139"] ;
110 -> 112 ;
113 [label="gini = 0.0\nsamples = 4\nvalue = [0, 4]\nclass = o", fillcolor="#399de5"] ;
107 -> 113 ;
114 [label="Loan_Amount_Term <= 270.0\ngini = 0.48\nsamples = 10\nvalue = [4, 6]\nclass = o", fillcolor="#bddef6"] ;
106 -> 114 ;
115 [label="gini = 0.0\nsamples = 1\nvalue = [0, 1]\nclass = o", fillcolor="#399de5"] ;
114 -> 115 ;
116 [label="Loan_Amount_Term <= 330.0\ngini = 0.49\nsamples = 9\nvalue = [4, 5]\nclass = o", fillcolor="#d7ebfa"] ;
114 -> 116 ;
117 [label="gini = 0.0\nsamples = 1\nvalue = [1, 0]\nclass = L", fillcolor="#e58139"] ;
116 -> 117 ;
118 [label="Education <= 0.5\ngini = 0.47\nsamples = 8\nvalue = [3, 5]\nclass = o", fillcolor="#b0d8f5"] ;
116 -> 118 ;
119 [label="LoanAmount_log <= 4.57\ngini = 0.32\nsamples = 5\nvalue = [1, 4]\nclass = o", fillcolor="#6ab6ec"] ;
118 -> 119 ;
120 [label="LoanAmount_log <= 4.56\ngini = 0.5\nsamples = 2\nvalue = [1, 1]\nclass = L", fillcolor="#ffffff"] ;
119 -> 120 ;
121 [label="gini = 0.0\nsamples = 1\nvalue = [0, 1]\nclass = o", fillcolor="#399de5"] ;
120 -> 121 ;
122 [label="gini = 0.0\nsamples = 1\nvalue = [1, 0]\nclass = L", fillcolor="#e58139"] ;
120 -> 122 ;
123 [label="gini = 0.0\nsamples = 3\nvalue = [0, 3]\nclass = o", fillcolor="#399de5"] ;
119 -> 123 ;
124 [label="LoanAmount_log <= 4.56\ngini = 0.44\nsamples = 3\nvalue = [2, 1]\nclass = L", fillcolor="#f2c09c"] ;
118 -> 124 ;
125 [label="gini = 0.0\nsamples = 1\nvalue = [1, 0]\nclass = L", fillcolor="#e58139"] ;
124 -> 125 ;
126 [label="LoanAmount_log <= 4.58\ngini = 0.5\nsamples = 2\nvalue = [1, 1]\nclass = L", fillcolor="#ffffff"] ;
124 -> 126 ;
127 [label="gini = 0.0\nsamples = 1\nvalue = [0, 1]\nclass = o", fillcolor="#399de5"] ;
126 -> 127 ;
128 [label="gini = 0.0\nsamples = 1\nvalue = [1, 0]\nclass = L", fillcolor="#e58139"] ;
126 -> 128 ;
129 [label="gini = 0.0\nsamples = 3\nvalue = [0, 3]\nclass = o", fillcolor="#399de5"] ;
105 -> 129 ;
130 [label="gini = 0.0\nsamples = 1\nvalue = [1, 0]\nclass = L", fillcolor="#e58139"] ;
104 -> 130 ;
131 [label="LoanAmount_log <= 4.71\ngini = 0.23\nsamples = 59\nvalue = [8, 51]\nclass = o", fillcolor="#58ace9"] ;
103 -> 131 ;
132 [label="gini = 0.0\nsamples = 9\nvalue = [0, 9]\nclass = o", fillcolor="#399de5"] ;
131 -> 132 ;
133 [label="LoanAmount_log <= 4.74\ngini = 0.27\nsamples = 50\nvalue = [8, 42]\nclass = o", fillcolor="#5fb0ea"] ;
131 -> 133 ;
134 [label="LoanAmount_log <= 4.73\ngini = 0.48\nsamples = 5\nvalue = [2, 3]\nclass = o", fillcolor="#bddef6"] ;
133 -> 134 ;
135 [label="Gender <= 0.5\ngini = 0.38\nsamples = 4\nvalue = [1, 3]\nclass = o", fillcolor="#7bbeee"] ;
134 -> 135 ;
136 [label="gini = 0.44\nsamples = 3\nvalue = [1, 2]\nclass = o", fillcolor="#9ccef2"] ;
135 -> 136 ;
137 [label="gini = 0.0\nsamples = 1\nvalue = [0, 1]\nclass = o", fillcolor="#399de5"] ;
135 -> 137 ;
138 [label="gini = 0.0\nsamples = 1\nvalue = [1, 0]\nclass = L", fillcolor="#e58139"] ;
134 -> 138 ;
139 [label="Loan_Amount_Term <= 261.0\ngini = 0.23\nsamples = 45\nvalue = [6, 39]\nclass = o", fillcolor="#57ace9"] ;
133 -> 139 ;
140 [label="Gender <= 0.5\ngini = 0.5\nsamples = 2\nvalue = [1, 1]\nclass = L", fillcolor="#ffffff"] ;
139 -> 140 ;
141 [label="gini = 0.0\nsamples = 1\nvalue = [0, 1]\nclass = o", fillcolor="#399de5"] ;
140 -> 141 ;
142 [label="gini = 0.0\nsamples = 1\nvalue = [1, 0]\nclass = L", fillcolor="#e58139"] ;
140 -> 142 ;
143 [label="LoanAmount_log <= 4.89\ngini = 0.21\nsamples = 43\nvalue = [5, 38]\nclass = o", fillcolor="#53aae8"] ;
139 -> 143 ;
144 [label="Gender <= 0.5\ngini = 0.13\nsamples = 28\nvalue = [2, 26]\nclass = o", fillcolor="#48a5e7"] ;
143 -> 144 ;
145 [label="gini = 0.0\nsamples = 12\nvalue = [0, 12]\nclass = o", fillcolor="#399de5"] ;
144 -> 145 ;
146 [label="LoanAmount_log <= 4.85\ngini = 0.22\nsamples = 16\nvalue = [2, 14]\nclass = o", fillcolor="#55abe9"] ;
144 -> 146 ;
147 [label="LoanAmount_log <= 4.84\ngini = 0.3\nsamples = 11\nvalue = [2, 9]\nclass = o", fillcolor="#65b3eb"] ;
146 -> 147 ;
148 [label="Education <= 0.5\ngini = 0.18\nsamples = 10\nvalue = [1, 9]\nclass = o", fillcolor="#4fa8e8"] ;
147 -> 148 ;
149 [label="gini = 0.0\nsamples = 7\nvalue = [0, 7]\nclass = o", fillcolor="#399de5"] ;
148 -> 149 ;
150 [label="Loan_Amount_Term <= 351.0\ngini = 0.44\nsamples = 3\nvalue = [1, 2]\nclass = o", fillcolor="#9ccef2"] ;
148 -> 150 ;
151 [label="gini = 0.0\nsamples = 1\nvalue = [0, 1]\nclass = o", fillcolor="#399de5"] ;
150 -> 151 ;
152 [label="LoanAmount_log <= 4.81\ngini = 0.5\nsamples = 2\nvalue = [1, 1]\nclass = L", fillcolor="#ffffff"] ;
150 -> 152 ;
153 [label="gini = 0.0\nsamples = 1\nvalue = [1, 0]\nclass = L", fillcolor="#e58139"] ;
152 -> 153 ;
154 [label="gini = 0.0\nsamples = 1\nvalue = [0, 1]\nclass = o", fillcolor="#399de5"] ;
152 -> 154 ;
155 [label="gini = 0.0\nsamples = 1\nvalue = [1, 0]\nclass = L", fillcolor="#e58139"] ;
147 -> 155 ;
156 [label="gini = 0.0\nsamples = 5\nvalue = [0, 5]\nclass = o", fillcolor="#399de5"] ;
146 -> 156 ;
157 [label="Education <= 0.5\ngini = 0.32\nsamples = 15\nvalue = [3, 12]\nclass = o", fillcolor="#6ab6ec"] ;
143 -> 157 ;
158 [label="Gender <= 0.5\ngini = 0.24\nsamples = 14\nvalue = [2, 12]\nclass = o", fillcolor="#5aade9"] ;
157 -> 158 ;
159 [label="LoanAmount_log <= 4.95\ngini = 0.5\nsamples = 4\nvalue = [2, 2]\nclass = L", fillcolor="#ffffff"] ;
158 -> 159 ;
160 [label="LoanAmount_log <= 4.92\ngini = 0.44\nsamples = 3\nvalue = [2, 1]\nclass = L", fillcolor="#f2c09c"] ;
159 -> 160 ;
161 [label="gini = 0.5\nsamples = 2\nvalue = [1, 1]\nclass = L", fillcolor="#ffffff"] ;
160 -> 161 ;
162 [label="gini = 0.0\nsamples = 1\nvalue = [1, 0]\nclass = L", fillcolor="#e58139"] ;
160 -> 162 ;
163 [label="gini = 0.0\nsamples = 1\nvalue = [0, 1]\nclass = o", fillcolor="#399de5"] ;
159 -> 163 ;
164 [label="gini = 0.0\nsamples = 10\nvalue = [0, 10]\nclass = o", fillcolor="#399de5"] ;
158 -> 164 ;
165 [label="gini = 0.0\nsamples = 1\nvalue = [1, 0]\nclass = L", fillcolor="#e58139"] ;
157 -> 165 ;
166 [label="Gender <= 0.5\ngini = 0.44\nsamples = 3\nvalue = [2, 1]\nclass = L", fillcolor="#f2c09c"] ;
102 -> 166 ;
167 [label="gini = 0.0\nsamples = 1\nvalue = [0, 1]\nclass = o", fillcolor="#399de5"] ;
166 -> 167 ;
168 [label="gini = 0.0\nsamples = 2\nvalue = [2, 0]\nclass = L", fillcolor="#e58139"] ;
166 -> 168 ;
169 [label="LoanAmount_log <= 4.88\ngini = 0.2\nsamples = 160\nvalue = [18, 142]\nclass = o", fillcolor="#52a9e8"] ;
101 -> 169 ;
170 [label="LoanAmount_log <= 4.7\ngini = 0.16\nsamples = 128\nvalue = [11, 117]\nclass = o", fillcolor="#4ca6e7"] ;
169 -> 170 ;
171 [label="LoanAmount_log <= 4.55\ngini = 0.08\nsamples = 49\nvalue = [2, 47]\nclass = o", fillcolor="#41a1e6"] ;
170 -> 171 ;
172 [label="LoanAmount_log <= 4.52\ngini = 0.24\nsamples = 7\nvalue = [1, 6]\nclass = o", fillcolor="#5aade9"] ;
171 -> 172 ;
173 [label="gini = 0.0\nsamples = 5\nvalue = [0, 5]\nclass = o", fillcolor="#399de5"] ;
172 -> 173 ;
174 [label="Loan_Amount_Term <= 420.0\ngini = 0.5\nsamples = 2\nvalue = [1, 1]\nclass = L", fillcolor="#ffffff"] ;
172 -> 174 ;
175 [label="gini = 0.0\nsamples = 1\nvalue = [1, 0]\nclass = L", fillcolor="#e58139"] ;
174 -> 175 ;
176 [label="gini = 0.0\nsamples = 1\nvalue = [0, 1]\nclass = o", fillcolor="#399de5"] ;
174 -> 176 ;
177 [label="LoanAmount_log <= 4.6\ngini = 0.05\nsamples = 42\nvalue = [1, 41]\nclass = o", fillcolor="#3e9fe6"] ;
171 -> 177 ;
178 [label="gini = 0.0\nsamples = 18\nvalue = [0, 18]\nclass = o", fillcolor="#399de5"] ;
177 -> 178 ;
179 [label="LoanAmount_log <= 4.61\ngini = 0.08\nsamples = 24\nvalue = [1, 23]\nclass = o", fillcolor="#42a1e6"] ;
177 -> 179 ;
180 [label="Education <= 0.5\ngini = 0.2\nsamples = 9\nvalue = [1, 8]\nclass = o", fillcolor="#52a9e8"] ;
179 -> 180 ;
181 [label="Gender <= 0.5\ngini = 0.24\nsamples = 7\nvalue = [1, 6]\nclass = o", fillcolor="#5aade9"] ;
180 -> 181 ;
182 [label="gini = 0.0\nsamples = 1\nvalue = [0, 1]\nclass = o", fillcolor="#399de5"] ;
181 -> 182 ;
183 [label="gini = 0.28\nsamples = 6\nvalue = [1, 5]\nclass = o", fillcolor="#61b1ea"] ;
181 -> 183 ;
184 [label="gini = 0.0\nsamples = 2\nvalue = [0, 2]\nclass = o", fillcolor="#399de5"] ;
180 -> 184 ;
185 [label="gini = 0.0\nsamples = 15\nvalue = [0, 15]\nclass = o", fillcolor="#399de5"] ;
179 -> 185 ;
186 [label="LoanAmount_log <= 4.73\ngini = 0.2\nsamples = 79\nvalue = [9, 70]\nclass = o", fillcolor="#52aae8"] ;
170 -> 186 ;
187 [label="Gender <= 0.5\ngini = 0.39\nsamples = 23\nvalue = [6, 17]\nclass = o", fillcolor="#7fc0ee"] ;
186 -> 187 ;
188 [label="LoanAmount_log <= 4.72\ngini = 0.5\nsamples = 4\nvalue = [2, 2]\nclass = L", fillcolor="#ffffff"] ;
187 -> 188 ;
189 [label="gini = 0.0\nsamples = 2\nvalue = [2, 0]\nclass = L", fillcolor="#e58139"] ;
188 -> 189 ;
190 [label="gini = 0.0\nsamples = 2\nvalue = [0, 2]\nclass = o", fillcolor="#399de5"] ;
188 -> 190 ;
191 [label="LoanAmount_log <= 4.72\ngini = 0.33\nsamples = 19\nvalue = [4, 15]\nclass = o", fillcolor="#6eb7ec"] ;
187 -> 191 ;
192 [label="LoanAmount_log <= 4.71\ngini = 0.24\nsamples = 14\nvalue = [2, 12]\nclass = o", fillcolor="#5aade9"] ;
191 -> 192 ;
193 [label="Education <= 0.5\ngini = 0.35\nsamples = 9\nvalue = [2, 7]\nclass = o", fillcolor="#72b9ec"] ;
192 -> 193 ;
194 [label="gini = 0.44\nsamples = 6\nvalue = [2, 4]\nclass = o", fillcolor="#9ccef2"] ;
193 -> 194 ;
195 [label="gini = 0.0\nsamples = 3\nvalue = [0, 3]\nclass = o", fillcolor="#399de5"] ;
193 -> 195 ;
196 [label="gini = 0.0\nsamples = 5\nvalue = [0, 5]\nclass = o", fillcolor="#399de5"] ;
192 -> 196 ;
197 [label="Loan_Amount_Term <= 270.0\ngini = 0.48\nsamples = 5\nvalue = [2, 3]\nclass = o", fillcolor="#bddef6"] ;
191 -> 197 ;
198 [label="gini = 0.0\nsamples = 1\nvalue = [0, 1]\nclass = o", fillcolor="#399de5"] ;
197 -> 198 ;
199 [label="Education <= 0.5\ngini = 0.5\nsamples = 4\nvalue = [2, 2]\nclass = L", fillcolor="#ffffff"] ;
197 -> 199 ;
200 [label="gini = 0.5\nsamples = 2\nvalue = [1, 1]\nclass = L", fillcolor="#ffffff"] ;
199 -> 200 ;
201 [label="gini = 0.5\nsamples = 2\nvalue = [1, 1]\nclass = L", fillcolor="#ffffff"] ;
199 -> 201 ;
202 [label="LoanAmount_log <= 4.85\ngini = 0.1\nsamples = 56\nvalue = [3, 53]\nclass = o", fillcolor="#44a3e6"] ;
186 -> 202 ;
203 [label="gini = 0.0\nsamples = 34\nvalue = [0, 34]\nclass = o", fillcolor="#399de5"] ;
202 -> 203 ;
204 [label="LoanAmount_log <= 4.86\ngini = 0.24\nsamples = 22\nvalue = [3, 19]\nclass = o", fillcolor="#58ace9"] ;
202 -> 204 ;
205 [label="Education <= 0.5\ngini = 0.42\nsamples = 10\nvalue = [3, 7]\nclass = o", fillcolor="#8ec7f0"] ;
204 -> 205 ;
206 [label="Loan_Amount_Term <= 270.0\ngini = 0.24\nsamples = 7\nvalue = [1, 6]\nclass = o", fillcolor="#5aade9"] ;
205 -> 206 ;
207 [label="gini = 0.0\nsamples = 1\nvalue = [0, 1]\nclass = o", fillcolor="#399de5"] ;
206 -> 207 ;
208 [label="LoanAmount_log <= 4.86\ngini = 0.28\nsamples = 6\nvalue = [1, 5]\nclass = o", fillcolor="#61b1ea"] ;
206 -> 208 ;
209 [label="gini = 0.32\nsamples = 5\nvalue = [1, 4]\nclass = o", fillcolor="#6ab6ec"] ;
208 -> 209 ;
210 [label="gini = 0.0\nsamples = 1\nvalue = [0, 1]\nclass = o", fillcolor="#399de5"] ;
208 -> 210 ;
211 [label="LoanAmount_log <= 4.86\ngini = 0.44\nsamples = 3\nvalue = [2, 1]\nclass = L", fillcolor="#f2c09c"] ;
205 -> 211 ;
212 [label="gini = 0.5\nsamples = 2\nvalue = [1, 1]\nclass = L", fillcolor="#ffffff"] ;
211 -> 212 ;
213 [label="gini = 0.0\nsamples = 1\nvalue = [1, 0]\nclass = L", fillcolor="#e58139"] ;
211 -> 213 ;
214 [label="gini = 0.0\nsamples = 12\nvalue = [0, 12]\nclass = o", fillcolor="#399de5"] ;
204 -> 214 ;
215 [label="Education <= 0.5\ngini = 0.34\nsamples = 32\nvalue = [7, 25]\nclass = o", fillcolor="#70b8ec"] ;
169 -> 215 ;
216 [label="LoanAmount_log <= 4.91\ngini = 0.23\nsamples = 23\nvalue = [3, 20]\nclass = o", fillcolor="#57ace9"] ;
215 -> 216 ;
217 [label="Gender <= 0.5\ngini = 0.47\nsamples = 8\nvalue = [3, 5]\nclass = o", fillcolor="#b0d8f5"] ;
216 -> 217 ;
218 [label="gini = 0.0\nsamples = 1\nvalue = [0, 1]\nclass = o", fillcolor="#399de5"] ;
217 -> 218 ;
219 [label="LoanAmount_log <= 4.9\ngini = 0.49\nsamples = 7\nvalue = [3, 4]\nclass = o", fillcolor="#cee6f8"] ;
217 -> 219 ;
220 [label="LoanAmount_log <= 4.89\ngini = 0.38\nsamples = 4\nvalue = [1, 3]\nclass = o", fillcolor="#7bbeee"] ;
219 -> 220 ;
221 [label="gini = 0.0\nsamples = 1\nvalue = [0, 1]\nclass = o", fillcolor="#399de5"] ;
220 -> 221 ;
222 [label="gini = 0.44\nsamples = 3\nvalue = [1, 2]\nclass = o", fillcolor="#9ccef2"] ;
220 -> 222 ;
223 [label="gini = 0.44\nsamples = 3\nvalue = [2, 1]\nclass = L", fillcolor="#f2c09c"] ;
219 -> 223 ;
224 [label="gini = 0.0\nsamples = 15\nvalue = [0, 15]\nclass = o", fillcolor="#399de5"] ;
216 -> 224 ;
225 [label="LoanAmount_log <= 4.92\ngini = 0.49\nsamples = 9\nvalue = [4, 5]\nclass = o", fillcolor="#d7ebfa"] ;
215 -> 225 ;
226 [label="Loan_Amount_Term <= 270.0\ngini = 0.38\nsamples = 4\nvalue = [1, 3]\nclass = o", fillcolor="#7bbeee"] ;
225 -> 226 ;
227 [label="gini = 0.0\nsamples = 2\nvalue = [0, 2]\nclass = o", fillcolor="#399de5"] ;
226 -> 227 ;
228 [label="LoanAmount_log <= 4.9\ngini = 0.5\nsamples = 2\nvalue = [1, 1]\nclass = L", fillcolor="#ffffff"] ;
226 -> 228 ;
229 [label="gini = 0.0\nsamples = 1\nvalue = [1, 0]\nclass = L", fillcolor="#e58139"] ;
228 -> 229 ;
230 [label="gini = 0.0\nsamples = 1\nvalue = [0, 1]\nclass = o", fillcolor="#399de5"] ;
228 -> 230 ;
231 [label="Gender <= 0.5\ngini = 0.48\nsamples = 5\nvalue = [3, 2]\nclass = L", fillcolor="#f6d5bd"] ;
225 -> 231 ;
232 [label="gini = 0.0\nsamples = 1\nvalue = [0, 1]\nclass = o", fillcolor="#399de5"] ;
231 -> 232 ;
233 [label="LoanAmount_log <= 4.96\ngini = 0.38\nsamples = 4\nvalue = [3, 1]\nclass = L", fillcolor="#eeab7b"] ;
231 -> 233 ;
234 [label="gini = 0.0\nsamples = 3\nvalue = [3, 0]\nclass = L", fillcolor="#e58139"] ;
233 -> 234 ;
235 [label="gini = 0.0\nsamples = 1\nvalue = [0, 1]\nclass = o", fillcolor="#399de5"] ;
233 -> 235 ;
236 [label="Married <= 0.5\ngini = 0.4\nsamples = 198\nvalue = [54, 144]\nclass = o", fillcolor="#83c2ef"] ;
30 -> 236 ;
237 [label="LoanAmount_log <= 5.71\ngini = 0.48\nsamples = 51\nvalue = [20, 31]\nclass = o", fillcolor="#b9dcf6"] ;
236 -> 237 ;
238 [label="LoanAmount_log <= 5.52\ngini = 0.45\nsamples = 44\nvalue = [15, 29]\nclass = o", fillcolor="#9fd0f2"] ;
237 -> 238 ;
239 [label="LoanAmount_log <= 5.24\ngini = 0.47\nsamples = 39\nvalue = [15, 24]\nclass = o", fillcolor="#b5daf5"] ;
238 -> 239 ;
240 [label="Loan_Amount_Term <= 48.0\ngini = 0.42\nsamples = 30\nvalue = [9, 21]\nclass = o", fillcolor="#8ec7f0"] ;
239 -> 240 ;
241 [label="gini = 0.0\nsamples = 1\nvalue = [1, 0]\nclass = L", fillcolor="#e58139"] ;
240 -> 241 ;
242 [label="Loan_Amount_Term <= 420.0\ngini = 0.4\nsamples = 29\nvalue = [8, 21]\nclass = o", fillcolor="#84c2ef"] ;
240 -> 242 ;
243 [label="LoanAmount_log <= 4.99\ngini = 0.38\nsamples = 28\nvalue = [7, 21]\nclass = o", fillcolor="#7bbeee"] ;
242 -> 243 ;
244 [label="Gender <= 0.5\ngini = 0.5\nsamples = 6\nvalue = [3, 3]\nclass = L", fillcolor="#ffffff"] ;
243 -> 244 ;
245 [label="gini = 0.0\nsamples = 1\nvalue = [0, 1]\nclass = o", fillcolor="#399de5"] ;
244 -> 245 ;
246 [label="Education <= 0.5\ngini = 0.48\nsamples = 5\nvalue = [3, 2]\nclass = L", fillcolor="#f6d5bd"] ;
244 -> 246 ;
247 [label="gini = 0.5\nsamples = 4\nvalue = [2, 2]\nclass = L", fillcolor="#ffffff"] ;
246 -> 247 ;
248 [label="gini = 0.0\nsamples = 1\nvalue = [1, 0]\nclass = L", fillcolor="#e58139"] ;
246 -> 248 ;
249 [label="LoanAmount_log <= 5.06\ngini = 0.3\nsamples = 22\nvalue = [4, 18]\nclass = o", fillcolor="#65b3eb"] ;
243 -> 249 ;
250 [label="gini = 0.0\nsamples = 8\nvalue = [0, 8]\nclass = o", fillcolor="#399de5"] ;
249 -> 250 ;
251 [label="LoanAmount_log <= 5.08\ngini = 0.41\nsamples = 14\nvalue = [4, 10]\nclass = o", fillcolor="#88c4ef"] ;
249 -> 251 ;
252 [label="gini = 0.0\nsamples = 1\nvalue = [1, 0]\nclass = L", fillcolor="#e58139"] ;
251 -> 252 ;
253 [label="LoanAmount_log <= 5.23\ngini = 0.36\nsamples = 13\nvalue = [3, 10]\nclass = o", fillcolor="#74baed"] ;
251 -> 253 ;
254 [label="LoanAmount_log <= 5.17\ngini = 0.42\nsamples = 10\nvalue = [3, 7]\nclass = o", fillcolor="#8ec7f0"] ;
253 -> 254 ;
255 [label="LoanAmount_log <= 5.11\ngini = 0.28\nsamples = 6\nvalue = [1, 5]\nclass = o", fillcolor="#61b1ea"] ;
254 -> 255 ;
256 [label="LoanAmount_log <= 5.09\ngini = 0.44\nsamples = 3\nvalue = [1, 2]\nclass = o", fillcolor="#9ccef2"] ;
255 -> 256 ;
257 [label="gini = 0.0\nsamples = 2\nvalue = [0, 2]\nclass = o", fillcolor="#399de5"] ;
256 -> 257 ;
258 [label="gini = 0.0\nsamples = 1\nvalue = [1, 0]\nclass = L", fillcolor="#e58139"] ;
256 -> 258 ;
259 [label="gini = 0.0\nsamples = 3\nvalue = [0, 3]\nclass = o", fillcolor="#399de5"] ;
255 -> 259 ;
260 [label="LoanAmount_log <= 5.19\ngini = 0.5\nsamples = 4\nvalue = [2, 2]\nclass = L", fillcolor="#ffffff"] ;
254 -> 260 ;
261 [label="gini = 0.0\nsamples = 1\nvalue = [1, 0]\nclass = L", fillcolor="#e58139"] ;
260 -> 261 ;
262 [label="LoanAmount_log <= 5.22\ngini = 0.44\nsamples = 3\nvalue = [1, 2]\nclass = o", fillcolor="#9ccef2"] ;
260 -> 262 ;
263 [label="gini = 0.0\nsamples = 1\nvalue = [0, 1]\nclass = o", fillcolor="#399de5"] ;
262 -> 263 ;
264 [label="gini = 0.5\nsamples = 2\nvalue = [1, 1]\nclass = L", fillcolor="#ffffff"] ;
262 -> 264 ;
265 [label="gini = 0.0\nsamples = 3\nvalue = [0, 3]\nclass = o", fillcolor="#399de5"] ;
253 -> 265 ;
266 [label="gini = 0.0\nsamples = 1\nvalue = [1, 0]\nclass = L", fillcolor="#e58139"] ;
242 -> 266 ;
267 [label="LoanAmount_log <= 5.29\ngini = 0.44\nsamples = 9\nvalue = [6, 3]\nclass = L", fillcolor="#f2c09c"] ;
239 -> 267 ;
268 [label="gini = 0.0\nsamples = 3\nvalue = [3, 0]\nclass = L", fillcolor="#e58139"] ;
267 -> 268 ;
269 [label="LoanAmount_log <= 5.36\ngini = 0.5\nsamples = 6\nvalue = [3, 3]\nclass = L", fillcolor="#ffffff"] ;
267 -> 269 ;
270 [label="gini = 0.0\nsamples = 2\nvalue = [0, 2]\nclass = o", fillcolor="#399de5"] ;
269 -> 270 ;
271 [label="Education <= 0.5\ngini = 0.38\nsamples = 4\nvalue = [3, 1]\nclass = L", fillcolor="#eeab7b"] ;
269 -> 271 ;
272 [label="gini = 0.0\nsamples = 3\nvalue = [3, 0]\nclass = L", fillcolor="#e58139"] ;
271 -> 272 ;
273 [label="gini = 0.0\nsamples = 1\nvalue = [0, 1]\nclass = o", fillcolor="#399de5"] ;
271 -> 273 ;
274 [label="gini = 0.0\nsamples = 5\nvalue = [0, 5]\nclass = o", fillcolor="#399de5"] ;
238 -> 274 ;
275 [label="LoanAmount_log <= 5.93\ngini = 0.41\nsamples = 7\nvalue = [5, 2]\nclass = L", fillcolor="#efb388"] ;
237 -> 275 ;
276 [label="gini = 0.0\nsamples = 4\nvalue = [4, 0]\nclass = L", fillcolor="#e58139"] ;
275 -> 276 ;
277 [label="LoanAmount_log <= 6.09\ngini = 0.44\nsamples = 3\nvalue = [1, 2]\nclass = o", fillcolor="#9ccef2"] ;
275 -> 277 ;
278 [label="gini = 0.0\nsamples = 1\nvalue = [0, 1]\nclass = o", fillcolor="#399de5"] ;
277 -> 278 ;
279 [label="LoanAmount_log <= 6.33\ngini = 0.5\nsamples = 2\nvalue = [1, 1]\nclass = L", fillcolor="#ffffff"] ;
277 -> 279 ;
280 [label="gini = 0.0\nsamples = 1\nvalue = [1, 0]\nclass = L", fillcolor="#e58139"] ;
279 -> 280 ;
281 [label="gini = 0.0\nsamples = 1\nvalue = [0, 1]\nclass = o", fillcolor="#399de5"] ;
279 -> 281 ;
282 [label="Loan_Amount_Term <= 132.0\ngini = 0.36\nsamples = 147\nvalue = [34, 113]\nclass = o", fillcolor="#75baed"] ;
236 -> 282 ;
283 [label="gini = 0.0\nsamples = 1\nvalue = [1, 0]\nclass = L", fillcolor="#e58139"] ;
282 -> 283 ;
284 [label="Education <= 0.5\ngini = 0.35\nsamples = 146\nvalue = [33, 113]\nclass = o", fillcolor="#73baed"] ;
282 -> 284 ;
285 [label="LoanAmount_log <= 5.54\ngini = 0.33\nsamples = 131\nvalue = [27, 104]\nclass = o", fillcolor="#6cb6ec"] ;
284 -> 285 ;
286 [label="LoanAmount_log <= 5.22\ngini = 0.28\nsamples = 99\nvalue = [17, 82]\nclass = o", fillcolor="#62b1ea"] ;
285 -> 286 ;
287 [label="Loan_Amount_Term <= 351.0\ngini = 0.34\nsamples = 64\nvalue = [14, 50]\nclass = o", fillcolor="#70b8ec"] ;
286 -> 287 ;
288 [label="gini = 0.0\nsamples = 7\nvalue = [0, 7]\nclass = o", fillcolor="#399de5"] ;
287 -> 288 ;
289 [label="LoanAmount_log <= 5.22\ngini = 0.37\nsamples = 57\nvalue = [14, 43]\nclass = o", fillcolor="#79bded"] ;
287 -> 289 ;
290 [label="LoanAmount_log <= 5.17\ngini = 0.36\nsamples = 56\nvalue = [13, 43]\nclass = o", fillcolor="#75bbed"] ;
289 -> 290 ;
291 [label="LoanAmount_log <= 5.11\ngini = 0.38\nsamples = 48\nvalue = [12, 36]\nclass = o", fillcolor="#7bbeee"] ;
290 -> 291 ;
292 [label="LoanAmount_log <= 5.07\ngini = 0.32\nsamples = 35\nvalue = [7, 28]\nclass = o", fillcolor="#6ab6ec"] ;
291 -> 292 ;
293 [label="LoanAmount_log <= 5.07\ngini = 0.38\nsamples = 24\nvalue = [6, 18]\nclass = o", fillcolor="#7bbeee"] ;
292 -> 293 ;
294 [label="LoanAmount_log <= 5.02\ngini = 0.34\nsamples = 23\nvalue = [5, 18]\nclass = o", fillcolor="#70b8ec"] ;
293 -> 294 ;
295 [label="LoanAmount_log <= 5.01\ngini = 0.41\nsamples = 14\nvalue = [4, 10]\nclass = o", fillcolor="#88c4ef"] ;
294 -> 295 ;
296 [label="LoanAmount_log <= 4.99\ngini = 0.36\nsamples = 13\nvalue = [3, 10]\nclass = o", fillcolor="#74baed"] ;
295 -> 296 ;
297 [label="gini = 0.41\nsamples = 7\nvalue = [2, 5]\nclass = o", fillcolor="#88c4ef"] ;
296 -> 297 ;
298 [label="LoanAmount_log <= 5.0\ngini = 0.28\nsamples = 6\nvalue = [1, 5]\nclass = o", fillcolor="#61b1ea"] ;
296 -> 298 ;
299 [label="gini = 0.0\nsamples = 1\nvalue = [0, 1]\nclass = o", fillcolor="#399de5"] ;
298 -> 299 ;
300 [label="gini = 0.32\nsamples = 5\nvalue = [1, 4]\nclass = o", fillcolor="#6ab6ec"] ;
298 -> 300 ;
301 [label="gini = 0.0\nsamples = 1\nvalue = [1, 0]\nclass = L", fillcolor="#e58139"] ;
295 -> 301 ;
302 [label="LoanAmount_log <= 5.04\ngini = 0.2\nsamples = 9\nvalue = [1, 8]\nclass = o", fillcolor="#52a9e8"] ;
294 -> 302 ;
303 [label="gini = 0.0\nsamples = 3\nvalue = [0, 3]\nclass = o", fillcolor="#399de5"] ;
302 -> 303 ;
304 [label="LoanAmount_log <= 5.05\ngini = 0.28\nsamples = 6\nvalue = [1, 5]\nclass = o", fillcolor="#61b1ea"] ;
302 -> 304 ;
305 [label="gini = 0.44\nsamples = 3\nvalue = [1, 2]\nclass = o", fillcolor="#9ccef2"] ;
304 -> 305 ;
306 [label="gini = 0.0\nsamples = 3\nvalue = [0, 3]\nclass = o", fillcolor="#399de5"] ;
304 -> 306 ;
307 [label="gini = 0.0\nsamples = 1\nvalue = [1, 0]\nclass = L", fillcolor="#e58139"] ;
293 -> 307 ;
308 [label="LoanAmount_log <= 5.08\ngini = 0.17\nsamples = 11\nvalue = [1, 10]\nclass = o", fillcolor="#4da7e8"] ;
292 -> 308 ;
309 [label="gini = 0.22\nsamples = 8\nvalue = [1, 7]\nclass = o", fillcolor="#55abe9"] ;
308 -> 309 ;
310 [label="gini = 0.0\nsamples = 3\nvalue = [0, 3]\nclass = o", fillcolor="#399de5"] ;
308 -> 310 ;
311 [label="LoanAmount_log <= 5.12\ngini = 0.47\nsamples = 13\nvalue = [5, 8]\nclass = o", fillcolor="#b5daf5"] ;
291 -> 311 ;
312 [label="gini = 0.0\nsamples = 1\nvalue = [1, 0]\nclass = L", fillcolor="#e58139"] ;
311 -> 312 ;
313 [label="LoanAmount_log <= 5.13\ngini = 0.44\nsamples = 12\nvalue = [4, 8]\nclass = o", fillcolor="#9ccef2"] ;
311 -> 313 ;
314 [label="gini = 0.0\nsamples = 2\nvalue = [0, 2]\nclass = o", fillcolor="#399de5"] ;
313 -> 314 ;
315 [label="LoanAmount_log <= 5.14\ngini = 0.48\nsamples = 10\nvalue = [4, 6]\nclass = o", fillcolor="#bddef6"] ;
313 -> 315 ;
316 [label="gini = 0.44\nsamples = 3\nvalue = [2, 1]\nclass = L", fillcolor="#f2c09c"] ;
315 -> 316 ;
317 [label="LoanAmount_log <= 5.15\ngini = 0.41\nsamples = 7\nvalue = [2, 5]\nclass = o", fillcolor="#88c4ef"] ;
315 -> 317 ;
318 [label="gini = 0.0\nsamples = 2\nvalue = [0, 2]\nclass = o", fillcolor="#399de5"] ;
317 -> 318 ;
319 [label="LoanAmount_log <= 5.16\ngini = 0.48\nsamples = 5\nvalue = [2, 3]\nclass = o", fillcolor="#bddef6"] ;
317 -> 319 ;
320 [label="gini = 0.5\nsamples = 2\nvalue = [1, 1]\nclass = L", fillcolor="#ffffff"] ;
319 -> 320 ;
321 [label="gini = 0.44\nsamples = 3\nvalue = [1, 2]\nclass = o", fillcolor="#9ccef2"] ;
319 -> 321 ;
322 [label="LoanAmount_log <= 5.2\ngini = 0.22\nsamples = 8\nvalue = [1, 7]\nclass = o", fillcolor="#55abe9"] ;
290 -> 322 ;
323 [label="gini = 0.0\nsamples = 5\nvalue = [0, 5]\nclass = o", fillcolor="#399de5"] ;
322 -> 323 ;
324 [label="Gender <= 0.5\ngini = 0.44\nsamples = 3\nvalue = [1, 2]\nclass = o", fillcolor="#9ccef2"] ;
322 -> 324 ;
325 [label="gini = 0.0\nsamples = 1\nvalue = [0, 1]\nclass = o", fillcolor="#399de5"] ;
324 -> 325 ;
326 [label="LoanAmount_log <= 5.21\ngini = 0.5\nsamples = 2\nvalue = [1, 1]\nclass = L", fillcolor="#ffffff"] ;
324 -> 326 ;
327 [label="gini = 0.0\nsamples = 1\nvalue = [1, 0]\nclass = L", fillcolor="#e58139"] ;
326 -> 327 ;
328 [label="gini = 0.0\nsamples = 1\nvalue = [0, 1]\nclass = o", fillcolor="#399de5"] ;
326 -> 328 ;
329 [label="gini = 0.0\nsamples = 1\nvalue = [1, 0]\nclass = L", fillcolor="#e58139"] ;
289 -> 329 ;
330 [label="LoanAmount_log <= 5.3\ngini = 0.16\nsamples = 35\nvalue = [3, 32]\nclass = o", fillcolor="#4ca6e7"] ;
286 -> 330 ;
331 [label="gini = 0.0\nsamples = 16\nvalue = [0, 16]\nclass = o", fillcolor="#399de5"] ;
330 -> 331 ;
332 [label="LoanAmount_log <= 5.33\ngini = 0.27\nsamples = 19\nvalue = [3, 16]\nclass = o", fillcolor="#5eafea"] ;
330 -> 332 ;
333 [label="Loan_Amount_Term <= 300.0\ngini = 0.44\nsamples = 3\nvalue = [2, 1]\nclass = L", fillcolor="#f2c09c"] ;
332 -> 333 ;
334 [label="gini = 0.0\nsamples = 1\nvalue = [1, 0]\nclass = L", fillcolor="#e58139"] ;
333 -> 334 ;
335 [label="LoanAmount_log <= 5.31\ngini = 0.5\nsamples = 2\nvalue = [1, 1]\nclass = L", fillcolor="#ffffff"] ;
333 -> 335 ;
336 [label="gini = 0.0\nsamples = 1\nvalue = [1, 0]\nclass = L", fillcolor="#e58139"] ;
335 -> 336 ;
337 [label="gini = 0.0\nsamples = 1\nvalue = [0, 1]\nclass = o", fillcolor="#399de5"] ;
335 -> 337 ;
338 [label="LoanAmount_log <= 5.47\ngini = 0.12\nsamples = 16\nvalue = [1, 15]\nclass = o", fillcolor="#46a4e7"] ;
332 -> 338 ;
339 [label="gini = 0.0\nsamples = 10\nvalue = [0, 10]\nclass = o", fillcolor="#399de5"] ;
338 -> 339 ;
340 [label="LoanAmount_log <= 5.48\ngini = 0.28\nsamples = 6\nvalue = [1, 5]\nclass = o", fillcolor="#61b1ea"] ;
338 -> 340 ;
341 [label="gini = 0.0\nsamples = 1\nvalue = [1, 0]\nclass = L", fillcolor="#e58139"] ;
340 -> 341 ;
342 [label="gini = 0.0\nsamples = 5\nvalue = [0, 5]\nclass = o", fillcolor="#399de5"] ;
340 -> 342 ;
343 [label="LoanAmount_log <= 5.73\ngini = 0.43\nsamples = 32\nvalue = [10, 22]\nclass = o", fillcolor="#93caf1"] ;
285 -> 343 ;
344 [label="LoanAmount_log <= 5.71\ngini = 0.5\nsamples = 15\nvalue = [7, 8]\nclass = o", fillcolor="#e6f3fc"] ;
343 -> 344 ;
345 [label="LoanAmount_log <= 5.55\ngini = 0.49\nsamples = 14\nvalue = [6, 8]\nclass = o", fillcolor="#cee6f8"] ;
344 -> 345 ;
346 [label="LoanAmount_log <= 5.55\ngini = 0.44\nsamples = 3\nvalue = [2, 1]\nclass = L", fillcolor="#f2c09c"] ;
345 -> 346 ;
347 [label="gini = 0.5\nsamples = 2\nvalue = [1, 1]\nclass = L", fillcolor="#ffffff"] ;
346 -> 347 ;
348 [label="gini = 0.0\nsamples = 1\nvalue = [1, 0]\nclass = L", fillcolor="#e58139"] ;
346 -> 348 ;
349 [label="LoanAmount_log <= 5.56\ngini = 0.46\nsamples = 11\nvalue = [4, 7]\nclass = o", fillcolor="#aad5f4"] ;
345 -> 349 ;
350 [label="gini = 0.0\nsamples = 1\nvalue = [0, 1]\nclass = o", fillcolor="#399de5"] ;
349 -> 350 ;
351 [label="LoanAmount_log <= 5.69\ngini = 0.48\nsamples = 10\nvalue = [4, 6]\nclass = o", fillcolor="#bddef6"] ;
349 -> 351 ;
352 [label="LoanAmount_log <= 5.64\ngini = 0.49\nsamples = 9\nvalue = [4, 5]\nclass = o", fillcolor="#d7ebfa"] ;
351 -> 352 ;
353 [label="LoanAmount_log <= 5.58\ngini = 0.47\nsamples = 8\nvalue = [3, 5]\nclass = o", fillcolor="#b0d8f5"] ;
352 -> 353 ;
354 [label="LoanAmount_log <= 5.57\ngini = 0.5\nsamples = 4\nvalue = [2, 2]\nclass = L", fillcolor="#ffffff"] ;
353 -> 354 ;
355 [label="gini = 0.44\nsamples = 3\nvalue = [1, 2]\nclass = o", fillcolor="#9ccef2"] ;
354 -> 355 ;
356 [label="gini = 0.0\nsamples = 1\nvalue = [1, 0]\nclass = L", fillcolor="#e58139"] ;
354 -> 356 ;
357 [label="LoanAmount_log <= 5.6\ngini = 0.38\nsamples = 4\nvalue = [1, 3]\nclass = o", fillcolor="#7bbeee"] ;
353 -> 357 ;
358 [label="gini = 0.0\nsamples = 1\nvalue = [0, 1]\nclass = o", fillcolor="#399de5"] ;
357 -> 358 ;
359 [label="gini = 0.44\nsamples = 3\nvalue = [1, 2]\nclass = o", fillcolor="#9ccef2"] ;
357 -> 359 ;
360 [label="gini = 0.0\nsamples = 1\nvalue = [1, 0]\nclass = L", fillcolor="#e58139"] ;
352 -> 360 ;
361 [label="gini = 0.0\nsamples = 1\nvalue = [0, 1]\nclass = o", fillcolor="#399de5"] ;
351 -> 361 ;
362 [label="gini = 0.0\nsamples = 1\nvalue = [1, 0]\nclass = L", fillcolor="#e58139"] ;
344 -> 362 ;
363 [label="LoanAmount_log <= 6.21\ngini = 0.29\nsamples = 17\nvalue = [3, 14]\nclass = o", fillcolor="#63b2eb"] ;
343 -> 363 ;
364 [label="LoanAmount_log <= 5.88\ngini = 0.14\nsamples = 13\nvalue = [1, 12]\nclass = o", fillcolor="#49a5e7"] ;
363 -> 364 ;
365 [label="LoanAmount_log <= 5.83\ngini = 0.32\nsamples = 5\nvalue = [1, 4]\nclass = o", fillcolor="#6ab6ec"] ;
364 -> 365 ;
366 [label="gini = 0.0\nsamples = 4\nvalue = [0, 4]\nclass = o", fillcolor="#399de5"] ;
365 -> 366 ;
367 [label="gini = 0.0\nsamples = 1\nvalue = [1, 0]\nclass = L", fillcolor="#e58139"] ;
365 -> 367 ;
368 [label="gini = 0.0\nsamples = 8\nvalue = [0, 8]\nclass = o", fillcolor="#399de5"] ;
364 -> 368 ;
369 [label="LoanAmount_log <= 6.37\ngini = 0.5\nsamples = 4\nvalue = [2, 2]\nclass = L", fillcolor="#ffffff"] ;
363 -> 369 ;
370 [label="gini = 0.0\nsamples = 2\nvalue = [2, 0]\nclass = L", fillcolor="#e58139"] ;
369 -> 370 ;
371 [label="gini = 0.0\nsamples = 2\nvalue = [0, 2]\nclass = o", fillcolor="#399de5"] ;
369 -> 371 ;
372 [label="Loan_Amount_Term <= 420.0\ngini = 0.48\nsamples = 15\nvalue = [6, 9]\nclass = o", fillcolor="#bddef6"] ;
284 -> 372 ;
373 [label="Loan_Amount_Term <= 270.0\ngini = 0.46\nsamples = 14\nvalue = [5, 9]\nclass = o", fillcolor="#a7d3f3"] ;
372 -> 373 ;
374 [label="LoanAmount_log <= 5.31\ngini = 0.44\nsamples = 3\nvalue = [2, 1]\nclass = L", fillcolor="#f2c09c"] ;
373 -> 374 ;
375 [label="gini = 0.0\nsamples = 2\nvalue = [2, 0]\nclass = L", fillcolor="#e58139"] ;
374 -> 375 ;
376 [label="gini = 0.0\nsamples = 1\nvalue = [0, 1]\nclass = o", fillcolor="#399de5"] ;
374 -> 376 ;
377 [label="LoanAmount_log <= 5.07\ngini = 0.4\nsamples = 11\nvalue = [3, 8]\nclass = o", fillcolor="#83c2ef"] ;
373 -> 377 ;
378 [label="gini = 0.0\nsamples = 5\nvalue = [0, 5]\nclass = o", fillcolor="#399de5"] ;
377 -> 378 ;
379 [label="LoanAmount_log <= 5.19\ngini = 0.5\nsamples = 6\nvalue = [3, 3]\nclass = L", fillcolor="#ffffff"] ;
377 -> 379 ;
380 [label="gini = 0.0\nsamples = 2\nvalue = [2, 0]\nclass = L", fillcolor="#e58139"] ;
379 -> 380 ;
381 [label="LoanAmount_log <= 5.23\ngini = 0.38\nsamples = 4\nvalue = [1, 3]\nclass = o", fillcolor="#7bbeee"] ;
379 -> 381 ;
382 [label="gini = 0.0\nsamples = 2\nvalue = [0, 2]\nclass = o", fillcolor="#399de5"] ;
381 -> 382 ;
383 [label="LoanAmount_log <= 5.25\ngini = 0.5\nsamples = 2\nvalue = [1, 1]\nclass = L", fillcolor="#ffffff"] ;
381 -> 383 ;
384 [label="gini = 0.0\nsamples = 1\nvalue = [1, 0]\nclass = L", fillcolor="#e58139"] ;
383 -> 384 ;
385 [label="gini = 0.0\nsamples = 1\nvalue = [0, 1]\nclass = o", fillcolor="#399de5"] ;
383 -> 385 ;
386 [label="gini = 0.0\nsamples = 1\nvalue = [1, 0]\nclass = L", fillcolor="#e58139"] ;
372 -> 386 ;
}